digraph Tree {
node [shape=box] ;
0 [label="Total fertility rate (TFR)_1970.0 <= 3.05\ngini = 0.346\nsamples = 135\nvalue = [105, 30]"] ;
1 [label="Female Net enrolment ratio in secondary education <= 74.0\ngini = 0.124\nsamples = 30\nvalue = [2, 28]"] ;
0 -> 1 [labeldistance=2.5, labelangle=45, headlabel="True"] ;
2 [label="gini = 0.0\nsamples = 2\nvalue = [2, 0]"] ;
1 -> 2 ;
3 [label="gini = 0.0\nsamples = 28\nvalue = [0, 28]"] ;
1 -> 3 ;
4 [label="Under-five mortality rate (U5MR)_Deaths per 1000 live births_1970.0_Total <= 25.0\ngini = 0.037\nsamples = 105\nvalue = [103, 2]"] ;
0 -> 4 [labeldistance=2.5, labelangle=-45, headlabel="False"] ;
5 [label="gini = 0.0\nsamples = 1\nvalue = [0, 1]"] ;
4 -> 5 ;
6 [label="Prevalence of overweight (moderate and severe) - WHO <= 22.5\ngini = 0.019\nsamples = 104\nvalue = [103, 1]"] ;
4 -> 6 ;
7 [label="gini = 0.0\nsamples = 103\nvalue = [103, 0]"] ;
6 -> 7 ;
8 [label="gini = 0.0\nsamples = 1\nvalue = [0, 1]"] ;
6 -> 8 ;
}